digraph Tree {
node [shape=box, style="filled, rounded", color="black", fontname=helvetica] ;
edge [fontname=helvetica] ;
0 [label="thal_2 <= 0.5\ngini = 0.47\nsamples = 100.0%\nvalue = [0.38, 0.62]\nclass = 1", fillcolor="#399de563"] ;
1 [label="exang_1 <= 0.5\n0.43\n43.1%\n[0.69, 0.31]\n0", fillcolor="#e581398a"] ;
0 -> 1 [labeldistance=2.5, labelangle=45, headlabel="True"] ;
2 [label="oldpeak <= 0.8\n0.5\n24.8%\n[0.48, 0.52]\n1", fillcolor="#399de511"] ;
1 -> 2 ;
3 [label="age <= 62.5\n0.42\n11.1%\n[0.3, 0.7]\n1", fillcolor="#399de592"] ;
2 -> 3 ;
4 [label="age <= 60.0\n0.48\n8.5%\n[0.4, 0.6]\n1", fillcolor="#399de555"] ;
3 -> 4 ;
5 [label="oldpeak <= 0.1\n0.38\n7.8%\n[0.25, 0.75]\n1", fillcolor="#399de5aa"] ;
4 -> 5 ;
6 [label="trestbps <= 163.5\n0.2\n3.9%\n[0.11, 0.89]\n1", fillcolor="#399de5df"] ;
5 -> 6 ;
7 [label="0.0\n3.3%\n[0.0, 1.0]\n1", fillcolor="#399de5ff"] ;
6 -> 7 ;
8 [label="0.0\n0.7%\n[1.0, 0.0]\n0", fillcolor="#e58139ff"] ;
6 -> 8 ;
9 [label="trestbps <= 124.5\n0.49\n3.9%\n[0.43, 0.57]\n1", fillcolor="#399de540"] ;
5 -> 9 ;
10 [label="0.0\n0.7%\n[1.0, 0.0]\n0", fillcolor="#e58139ff"] ;
9 -> 10 ;
11 [label="restecg_1 <= 0.5\n0.32\n3.3%\n[0.2, 0.8]\n1", fillcolor="#399de5bf"] ;
9 -> 11 ;
12 [label="0.0\n0.7%\n[1.0, 0.0]\n0", fillcolor="#e58139ff"] ;
11 -> 12 ;
13 [label="0.0\n2.6%\n[0.0, 1.0]\n1", fillcolor="#399de5ff"] ;
11 -> 13 ;
14 [label="0.0\n0.7%\n[1.0, 0.0]\n0", fillcolor="#e58139ff"] ;
4 -> 14 ;
15 [label="oldpeak <= 0.5\n0.18\n2.6%\n[0.1, 0.9]\n1", fillcolor="#399de5e3"] ;
3 -> 15 ;
16 [label="0.0\n1.3%\n[0.0, 1.0]\n1", fillcolor="#399de5ff"] ;
15 -> 16 ;
17 [label="thal_1 <= 0.5\n0.38\n1.3%\n[0.25, 0.75]\n1", fillcolor="#399de5aa"] ;
15 -> 17 ;
18 [label="0.0\n0.7%\n[0.0, 1.0]\n1", fillcolor="#399de5ff"] ;
17 -> 18 ;
19 [label="0.0\n0.7%\n[1.0, 0.0]\n0", fillcolor="#e58139ff"] ;
17 -> 19 ;
20 [label="age <= 65.5\n0.44\n13.7%\n[0.68, 0.32]\n0", fillcolor="#e5813986"] ;
2 -> 20 ;
21 [label="oldpeak <= 2.25\n0.33\n11.8%\n[0.79, 0.21]\n0", fillcolor="#e58139bc"] ;
20 -> 21 ;
22 [label="chol <= 295.5\n0.2\n8.5%\n[0.89, 0.11]\n0", fillcolor="#e58139df"] ;
21 -> 22 ;
23 [label="restecg_1 <= 0.5\n0.11\n7.8%\n[0.94, 0.06]\n0", fillcolor="#e58139ef"] ;
22 -> 23 ;
24 [label="thalach <= 147.0\n0.32\n2.6%\n[0.8, 0.2]\n0", fillcolor="#e58139bf"] ;
23 -> 24 ;
25 [label="0.0\n1.3%\n[1.0, 0.0]\n0", fillcolor="#e58139ff"] ;
24 -> 25 ;
26 [label="age <= 58.0\n0.5\n1.3%\n[0.5, 0.5]\n0", fillcolor="#e5813900"] ;
24 -> 26 ;
27 [label="0.0\n0.7%\n[0.0, 1.0]\n1", fillcolor="#399de5ff"] ;
26 -> 27 ;
28 [label="0.0\n0.7%\n[1.0, 0.0]\n0", fillcolor="#e58139ff"] ;
26 -> 28 ;
29 [label="0.0\n5.2%\n[1.0, 0.0]\n0", fillcolor="#e58139ff"] ;
23 -> 29 ;
30 [label="0.0\n0.7%\n[0.0, 1.0]\n1", fillcolor="#399de5ff"] ;
22 -> 30 ;
31 [label="fbs_1 <= 0.5\n0.5\n3.3%\n[0.5, 0.5]\n0", fillcolor="#e5813900"] ;
21 -> 31 ;
32 [label="sex_1 <= 0.5\n0.38\n2.6%\n[0.75, 0.25]\n0", fillcolor="#e58139aa"] ;
31 -> 32 ;
33 [label="0.0\n1.3%\n[1.0, 0.0]\n0", fillcolor="#e58139ff"] ;
32 -> 33 ;
34 [label="trestbps <= 156.5\n0.5\n1.3%\n[0.5, 0.5]\n0", fillcolor="#e5813900"] ;
32 -> 34 ;
35 [label="0.0\n0.7%\n[1.0, 0.0]\n0", fillcolor="#e58139ff"] ;
34 -> 35 ;
36 [label="0.0\n0.7%\n[0.0, 1.0]\n1", fillcolor="#399de5ff"] ;
34 -> 36 ;
37 [label="0.0\n0.7%\n[0.0, 1.0]\n1", fillcolor="#399de5ff"] ;
31 -> 37 ;
38 [label="0.0\n2.0%\n[0.0, 1.0]\n1", fillcolor="#399de5ff"] ;
20 -> 38 ;
39 [label="restecg_1 <= 0.5\n0.09\n18.3%\n[0.95, 0.05]\n0", fillcolor="#e58139f3"] ;
1 -> 39 ;
40 [label="0.0\n7.8%\n[1.0, 0.0]\n0", fillcolor="#e58139ff"] ;
39 -> 40 ;
41 [label="chol <= 227.5\n0.15\n10.5%\n[0.92, 0.08]\n0", fillcolor="#e58139e9"] ;
39 -> 41 ;
42 [label="trestbps <= 136.0\n0.48\n3.3%\n[0.6, 0.4]\n0", fillcolor="#e5813955"] ;
41 -> 42 ;
43 [label="oldpeak <= 0.5\n0.44\n2.0%\n[0.33, 0.67]\n1", fillcolor="#399de57f"] ;
42 -> 43 ;
44 [label="0.0\n1.3%\n[0.0, 1.0]\n1", fillcolor="#399de5ff"] ;
43 -> 44 ;
45 [label="0.0\n0.7%\n[1.0, 0.0]\n0", fillcolor="#e58139ff"] ;
43 -> 45 ;
46 [label="0.0\n1.3%\n[1.0, 0.0]\n0", fillcolor="#e58139ff"] ;
42 -> 46 ;
47 [label="0.0\n7.2%\n[1.0, 0.0]\n0", fillcolor="#e58139ff"] ;
41 -> 47 ;
48 [label="trestbps <= 167.0\n0.26\n56.9%\n[0.16, 0.84]\n1", fillcolor="#399de5cf"] ;
0 -> 48 [labeldistance=2.5, labelangle=-45, headlabel="False"] ;
49 [label="thalach <= 111.5\n0.25\n55.6%\n[0.14, 0.86]\n1", fillcolor="#399de5d4"] ;
48 -> 49 ;
50 [label="slope_2 <= 0.5\n0.47\n3.3%\n[0.62, 0.38]\n0", fillcolor="#e5813966"] ;
49 -> 50 ;
51 [label="0.0\n2.6%\n[1.0, 0.0]\n0", fillcolor="#e58139ff"] ;
50 -> 51 ;
52 [label="0.0\n0.7%\n[0.0, 1.0]\n1", fillcolor="#399de5ff"] ;
50 -> 52 ;
53 [label="thalach <= 154.5\n0.2\n52.3%\n[0.12, 0.88]\n1", fillcolor="#399de5de"] ;
49 -> 53 ;
54 [label="age <= 63.0\n0.33\n21.6%\n[0.21, 0.79]\n1", fillcolor="#399de5bc"] ;
53 -> 54 ;
55 [label="ca <= 1.5\n0.41\n13.7%\n[0.29, 0.71]\n1", fillcolor="#399de597"] ;
54 -> 55 ;
56 [label="thalach <= 152.5\n0.34\n11.8%\n[0.21, 0.79]\n1", fillcolor="#399de5b9"] ;
55 -> 56 ;
57 [label="chol <= 225.5\n0.21\n10.5%\n[0.12, 0.88]\n1", fillcolor="#399de5dc"] ;
56 -> 57 ;
58 [label="0.0\n3.9%\n[0.0, 1.0]\n1", fillcolor="#399de5ff"] ;
57 -> 58 ;
59 [label="thalach <= 143.0\n0.29\n6.5%\n[0.18, 0.82]\n1", fillcolor="#399de5c8"] ;
57 -> 59 ;
60 [label="0.0\n2.6%\n[0.0, 1.0]\n1", fillcolor="#399de5ff"] ;
59 -> 60 ;
61 [label="restecg_1 <= 0.5\n0.4\n3.9%\n[0.27, 0.73]\n1", fillcolor="#399de59f"] ;
59 -> 61 ;
62 [label="ca <= 0.5\n0.2\n2.6%\n[0.11, 0.89]\n1", fillcolor="#399de5df"] ;
61 -> 62 ;
63 [label="0.0\n1.3%\n[0.0, 1.0]\n1", fillcolor="#399de5ff"] ;
62 -> 63 ;
64 [label="age <= 55.0\n0.44\n1.3%\n[0.33, 0.67]\n1", fillcolor="#399de57f"] ;
62 -> 64 ;
65 [label="0.0\n0.7%\n[0.0, 1.0]\n1", fillcolor="#399de5ff"] ;
64 -> 65 ;
66 [label="0.0\n0.7%\n[1.0, 0.0]\n0", fillcolor="#e58139ff"] ;
64 -> 66 ;
67 [label="0.0\n1.3%\n[1.0, 0.0]\n0", fillcolor="#e58139ff"] ;
61 -> 67 ;
68 [label="0.0\n1.3%\n[1.0, 0.0]\n0", fillcolor="#e58139ff"] ;
56 -> 68 ;
69 [label="0.0\n2.0%\n[1.0, 0.0]\n0", fillcolor="#e58139ff"] ;
55 -> 69 ;
70 [label="trestbps <= 116.0\n0.11\n7.8%\n[0.06, 0.94]\n1", fillcolor="#399de5ef"] ;
54 -> 70 ;
71 [label="age <= 68.5\n0.28\n2.6%\n[0.17, 0.83]\n1", fillcolor="#399de5cc"] ;
70 -> 71 ;
72 [label="trestbps <= 111.0\n0.5\n1.3%\n[0.5, 0.5]\n0", fillcolor="#e5813900"] ;
71 -> 72 ;
73 [label="0.0\n0.7%\n[0.0, 1.0]\n1", fillcolor="#399de5ff"] ;
72 -> 73 ;
74 [label="0.0\n0.7%\n[1.0, 0.0]\n0", fillcolor="#e58139ff"] ;
72 -> 74 ;
75 [label="0.0\n1.3%\n[0.0, 1.0]\n1", fillcolor="#399de5ff"] ;
71 -> 75 ;
76 [label="0.0\n5.2%\n[0.0, 1.0]\n1", fillcolor="#399de5ff"] ;
70 -> 76 ;
77 [label="ca <= 0.5\n0.11\n30.7%\n[0.06, 0.94]\n1", fillcolor="#399de5ee"] ;
53 -> 77 ;
78 [label="cp_2 <= 0.5\n0.03\n22.9%\n[0.02, 0.98]\n1", fillcolor="#399de5fb"] ;
77 -> 78 ;
79 [label="trestbps <= 129.0\n0.05\n15.0%\n[0.02, 0.98]\n1", fillcolor="#399de5f8"] ;
78 -> 79 ;
80 [label="0.0\n9.2%\n[0.0, 1.0]\n1", fillcolor="#399de5ff"] ;
79 -> 80 ;
81 [label="chol <= 300.5\n0.12\n5.9%\n[0.07, 0.93]\n1", fillcolor="#399de5ed"] ;
79 -> 81 ;
82 [label="0.0\n4.6%\n[0.0, 1.0]\n1", fillcolor="#399de5ff"] ;
81 -> 82 ;
83 [label="age <= 58.0\n0.44\n1.3%\n[0.33, 0.67]\n1", fillcolor="#399de57f"] ;
81 -> 83 ;
84 [label="0.0\n0.7%\n[0.0, 1.0]\n1", fillcolor="#399de5ff"] ;
83 -> 84 ;
85 [label="0.0\n0.7%\n[1.0, 0.0]\n0", fillcolor="#e58139ff"] ;
83 -> 85 ;
86 [label="0.0\n7.8%\n[0.0, 1.0]\n1", fillcolor="#399de5ff"] ;
78 -> 86 ;
87 [label="fbs_1 <= 0.5\n0.31\n7.8%\n[0.19, 0.81]\n1", fillcolor="#399de5c3"] ;
77 -> 87 ;
88 [label="thalach <= 177.5\n0.43\n5.9%\n[0.31, 0.69]\n1", fillcolor="#399de58e"] ;
87 -> 88 ;
89 [label="cp_2 <= 0.5\n0.48\n4.6%\n[0.4, 0.6]\n1", fillcolor="#399de555"] ;
88 -> 89 ;
90 [label="chol <= 214.0\n0.32\n2.6%\n[0.8, 0.2]\n0", fillcolor="#e58139bf"] ;
89 -> 90 ;
91 [label="trestbps <= 107.5\n0.5\n1.3%\n[0.5, 0.5]\n0", fillcolor="#e5813900"] ;
90 -> 91 ;
92 [label="0.0\n0.7%\n[0.0, 1.0]\n1", fillcolor="#399de5ff"] ;
91 -> 92 ;
93 [label="0.0\n0.7%\n[1.0, 0.0]\n0", fillcolor="#e58139ff"] ;
91 -> 93 ;
94 [label="0.0\n1.3%\n[1.0, 0.0]\n0", fillcolor="#e58139ff"] ;
90 -> 94 ;
95 [label="0.0\n2.0%\n[0.0, 1.0]\n1", fillcolor="#399de5ff"] ;
89 -> 95 ;
96 [label="0.0\n1.3%\n[0.0, 1.0]\n1", fillcolor="#399de5ff"] ;
88 -> 96 ;
97 [label="0.0\n2.0%\n[0.0, 1.0]\n1", fillcolor="#399de5ff"] ;
87 -> 97 ;
98 [label="0.0\n1.3%\n[1.0, 0.0]\n0", fillcolor="#e58139ff"] ;
48 -> 98 ;
}